#ifndef MODEL_PARAMS_H
#define MODEL_PARAMS_H

#define FEATURE_SIZE 1764

float weights[FEATURE_SIZE] = {
0.41268310791856505f,
0.0971150557485632f,-0.19771530040121257f,-0.10128930022678359f,-0.6659134250360242f,0.44655767121077206f,0.3141193213524543f,-0.29838792739774367f,-0.3323344750629134f,
0.14996451412114092f,0.467389021213632f,0.29853083164807614f,-0.07748182159015417f,0.10237213815148331f,0.3357256443363784f,0.437923446461297f,-0.017680194532235825f,
0.2608530799409632f,-0.0639286678213313f,0.19123219839496527f,0.22346001605954738f,-0.1388839819641241f,-0.47561239112567816f,-0.259362050020583f,-0.46869059886372894f,
0.17013842162235288f,-0.11855389933139922f,-0.24402142877948063f,-0.5320771146524914f,0.33805856713396243f,0.16288361888743272f,0.4585613406955622f,0.09156793935279359f,
-0.13558221197938428f,0.20002538275426524f,-0.252073754888525f,-0.1511150035389657f,-0.12567614721170756f,0.4004607434430074f,0.2950478516661816f,-0.22518028801836534f,
-0.0829038519480352f,0.1614449851013096f,-0.03370737952607392f,0.203682002287134f,-0.5689898781477435f,-0.06356738157920973f,-0.03897023294005431f,0.005229729146596578f,
-0.20816911386564577f,-0.3493730853170136f,-0.6345001161679026f,-0.06685671039896464f,0.4696460713868324f,-0.5696881130632201f,0.44420257185344364f,0.3827794325707553f,
0.14154851952769038f,0.40057931143074244f,0.011937753360757846f,-0.24022617718384903f,-0.29857437699328443f,0.2071692830621807f,-0.04614054544052003f,-0.012965715721799087f,
-0.05063357467091934f,0.12302113778436106f,-0.051614483590877745f,-0.021170083893688213f,-0.6064101338787712f,-0.07128855030659101f,-0.4829487377454832f,-0.3752230893657974f,
-0.5846428810166096f,0.10439078611863069f,0.012643251662649043f,0.2630695496797923f,-0.5652920885378087f,-0.15891399980961138f,0.3639719780004758f,-0.30417580553268686f,
0.3212892628111669f,0.10133981911734115f,-0.250168774111883f,0.46749333514204705f,0.31167109888626615f,-0.8101384666748356f,-0.05238083599428391f,0.35627116609768894f,
0.4998147384301047f,0.11687357488860849f,-0.18871624997979985f,0.2719260380809114f,-0.15327350758007371f,-0.1558505413641103f,-0.15999288067716938f,-0.2833477214125299f,
0.47756081749012447f,-0.1676060943792296f,0.013045939365660262f,0.17424799250227577f,0.01647073757472231f,0.45018895462366404f,0.11348473993370488f,0.12951345341864273f,
-0.026221577765913953f,0.24918324216228788f,-0.025205979204460396f,0.39558632913519387f,0.052357832943204966f,-0.5666694708300931f,0.28077712826155365f,0.012929244020205637f,
-0.5666841125764349f,-0.03221989591180904f,-0.11281443835242114f,0.10884522346637496f,-0.1435137638790049f,-0.1380056336585933f,-0.4121887978547365f,-0.46265312438004486f,
-0.24012794232162682f,0.21975913834911923f,0.6884097333976921f,-0.6905903586661926f,0.2197168196334083f,0.37254787166043446f,0.8537507939050697f,0.5383090335484959f,
0.06126783733341933f,-0.32183240841014105f,0.33681203625242423f,0.05008099976183361f,-0.17331507196752985f,0.13923126527090993f,0.10631887308743954f,0.5377104275115768f,
0.6061485632828637f,-0.18835684105805545f,-0.13992056151251878f,-0.21724083600212088f,0.5164489976551108f,-0.34451721982819167f,-0.547806681071563f,-0.3504373992386141f,
-0.13285114745424736f,-0.30314206628655027f,-0.22935237591674884f,0.06715691844116053f,0.2549126874117092f,0.6815146136446129f,-0.22261253963841268f,0.12511933271251052f,
0.3554559162312533f,0.6333235577923246f,0.13666299999199985f,-0.22885843526745636f,0.00444210386480766f,-0.5147566364654357f,-0.018085894041210228f,0.18790517699321554f,
-0.2744861103526037f,0.18577973557876276f,-0.3410577872612212f,-0.2584128363657374f,0.20329638959759933f,0.2567330502394224f,0.3763604694448047f,0.32497806116060735f,
0.15911987941726877f,-0.2740960535947393f,-0.16969134792350177f,0.07708008674437228f,-0.39176758351441593f,0.02869514797670342f,0.3316383337378615f,0.08440291662395293f,
-0.4766704136311574f,0.20009098133722383f,-0.4419737505943818f,0.5923409318809648f,0.07457422627058244f,-0.5240503164776782f,-0.21418910069910538f,0.06009694135125706f,
-0.6197853038776747f,-0.342573980756167f,-0.14361215620772788f,0.24389509765834524f,0.051936331140745855f,-0.03385018394460136f,-0.14713735116576507f,-0.47733329548243025f,
0.43167734667920715f,-0.3598312364139975f,0.0042281345006144775f,0.10027544769976966f,-0.11681067330848581f,-0.03227934329928539f,-0.20811527253537657f,-0.1364134451108554f,
0.04508887687010617f,0.39843788534975005f,-0.026002543623044005f,0.13065425199328393f,-0.40142709107752f,-0.17486633781983377f,0.12183749618028715f,0.32674069233870123f,
-0.1677927268858407f,0.6757188799790241f,0.17583167479073633f,-0.2743005982200168f,0.05856815843732544f,0.6462962638115154f,-0.5642917402996125f,-0.2803456738655979f,
-0.07936452656277666f,0.11748493516547666f,-0.4661210581991732f,0.035600395871787094f,-0.10162572591150691f,0.645333500867756f,0.7331344076020261f,-0.20905172566177277f,
-0.02812190637568115f,-0.33761968019294714f,0.011465634692219237f,-0.16811809575828177f,-0.22443307002093302f,-0.5211152253712588f,0.282015266932568f,0.056374535367853515f,
-0.27023303299702484f,0.11893053502603203f,0.26580596644863014f,-0.17436195437749763f,0.24591407181042244f,-0.16910817656242955f,-0.344642322966409f,0.1247490038366395f,
0.06188593687130184f,0.4830828761448759f,-0.209907804611954f,-0.05665247182714554f,0.13737495364984026f,0.4161398913165347f,0.029566205786488723f,-0.5004718032244283f,
-0.1939995092013933f,0.21345994970734045f,-0.46558257029628597f,-0.5155389119476325f,-0.48772707254977227f,0.6855217172202227f,0.25998590789307313f,-0.18820998058228927f,
-0.11530761690611212f,0.05218051435019566f,0.3293343706518401f,0.3209689582966443f,0.05583021749504688f,0.37877285870882355f,-0.26935620598234644f,-0.07991306805237552f,
0.001564058054147727f,-0.28141076852236097f,-0.015765384206427705f,0.35687935552845085f,0.29214198252921375f,0.11478197690126737f,0.3654563443606409f,0.366305870218431f,
-0.11292535078237197f,-0.38330472493934115f,0.26738867803244454f,-0.15352923230696824f,-0.5836076737155271f,0.06358564872691978f,0.1973255631872802f,0.017420043262589925f,
0.0366191780421368f,0.008941007249771647f,0.46450699294489217f,0.19619607283008503f,-0.15816363455372032f,-0.10521347558758767f,-0.3112268090439969f,-0.07127420663285938f,
-0.3133797593496831f,0.08099328967691882f,-0.31134829426172056f,-0.02034000344543854f,-0.1813255380372321f,0.10492721975949552f,0.1705641874170943f,-0.17856510700018716f,
-0.3268697098384693f,0.4587880496438174f,0.22979482047089814f,-0.38958157556332856f,-0.25619087382158573f,-0.09655006394642911f,-0.11394492093879066f,-0.13352776942009975f,
0.08628690604822442f,-0.08207323828604084f,0.11589913278407185f,-0.30415479886845f,-0.27012973833669135f,-0.4648725879952664f,0.146184793268347f,-0.18145277045477864f,
0.2297103904618347f,-0.5804074231748385f,-0.15590055476723486f,0.27611617211105666f,0.10301911598269818f,-0.3941738010890971f,-0.5686451988152266f,0.12747980764912972f,
0.16231111962272204f,-0.0519518504899238f,-0.05989985609038461f,-0.1758329688186925f,0.018102986093707345f,0.07982460632131953f,-0.3505881940135746f,-0.22120283780606073f,
-0.27947985522416957f,-0.1428771173183497f,0.05685755963189944f,-0.10135633428178188f,-0.42765344078569106f,-0.19107672903098646f,-0.2319792905583841f,0.11575782817786275f,
0.37830809327357345f,0.169761847338555f,0.04715610232222448f,-0.33671702113795327f,0.39730421883849243f,-0.288407207422518f,-0.001964257837159007f,0.20045346318598736f,
-0.07264586450857367f,-0.12669179913414613f,-0.11968914199586561f,-0.3267470858614176f,-0.35326316349333126f,-0.13045732420105613f,-0.2907597123418414f,0.006194081523267625f,
0.1276766213714336f,-0.18782209150594842f,0.02675611918604985f,-0.37738879845562395f,-0.26269099470936f,0.1820234950089873f,-0.1604797365193866f,0.050396192005770286f,
0.1835828384152469f,0.19657149160475218f,-0.001573513170869323f,0.0012766475578927607f,0.047328397737899576f,-0.42157831949055896f,0.053775705607829516f,-0.2886191305659899f,
-0.007856895926945452f,0.4193611055822537f,0.19832723950765274f,-0.05858653687095575f,0.05512114816177031f,-0.45265997436834815f,-0.031748524271866044f,-0.08652973924701789f,
-0.09522554688948953f,0.4954545730387978f,0.033411310020991986f,0.1461353669007477f,-0.2745009375802208f,-0.08874636595778068f,-0.2697852882111098f,-0.23084871322994185f,
0.2796564726085135f,-0.08937006439241113f,0.11092261808751848f,0.5301736873672273f,-0.040124396890709804f,0.40701379702862983f,0.36119343945900206f,-0.00012966329630019558f,
0.43239046618220994f,0.170701499171273f,-0.05743834085606592f,-0.4780871935453619f,-0.044340071070849855f,-0.5334308073118296f,0.22373509789909318f,0.08183112617883229f,
-0.3767314798392257f,-0.509863526699889f,0.09994392757976293f,-0.45957076643975475f,0.28343058529922494f,-0.09233660826882249f,-0.2469243428061574f,0.029410969664552904f,
-0.06397321367685965f,0.03701728835918315f,-0.07822345424543266f,0.33311629110295743f,0.4565953387614267f,0.30223218036141913f,-0.007945526678946482f,-0.2899683256873958f,
0.25502856996429757f,0.4007298184811726f,-0.3417870261694756f,-0.596410158762464f,0.0343233843612515f,0.018988584631056942f,0.5142240995873949f,0.26915765407676184f,
-0.26791246980247063f,-0.2565665360544087f,0.12003460522024198f,-0.15513240828238573f,-0.608628061803839f,0.5085605158183382f,0.12345469334911555f,-0.1914576909528788f,
0.5299198512809937f,-0.3400654840092684f,0.03382203781323703f,0.02714430131326853f,-0.08440074859376952f,0.34816282462680603f,-0.027008155681754693f,0.04548038525333436f,
0.07609254841291369f,0.05744390383949801f,-0.1706469333060385f,-0.04567928632029931f,-0.353803473201148f,-0.180353878730122f,0.03406470344629467f,-0.5126617917466102f,
-0.5524387952317683f,0.0782964693079561f,0.3408177631752271f,-0.4352756982428497f,-0.002741694866105507f,0.2932362277411282f,0.1633396124473244f,0.04535945598576088f,
0.0028493689385470687f,0.042282438190615224f,-0.15489150426038134f,-0.04834792772715942f,-0.05655851371740257f,-0.3972430476202929f,-0.1226481522445496f,-0.33441495849465697f,
0.23297430933557914f,-0.3788169158832797f,0.08837817915547713f,-0.1855053276111635f,-0.36588054190559205f,-0.4653792788590202f,-0.11289144924997396f,-0.14405333353214028f,
-0.003774759062543272f,0.0044637552953423025f,-0.5618021781461391f,-0.09036970002344949f,-0.3001813162677555f,0.00866229166576573f,-0.028571423674301318f,0.3138530108228195f,
-0.6178459606534386f,-0.2205000380868727f,-0.2500262565459268f,-0.07604314055438062f,-0.27954928468294404f,0.043827912800177116f,-0.15402453457210397f,-0.36152489591589126f,
-0.36708820214767873f,-0.1297992275119796f,0.02803427825901509f,0.11831748419678265f,-0.16706083336808533f,0.24151011977190615f,0.45575543948887104f,-0.0830686621127687f,
0.2342582482141965f,-0.42286256960753593f,0.005216623078747229f,0.017169717991893728f,-0.24183835629063372f,0.25106665394599703f,-0.07500548481662063f,-0.09615256105939328f,
0.3829144061530015f,0.08180937917162981f,-0.19618371539632518f,-0.6891111224914367f,-0.22317507238645046f,0.17343450103389862f,-0.17846976003620232f,-0.06175917804477558f,
-0.12179916968167478f,0.0002855095849439177f,-0.347033459455321f,0.34013880379326594f,0.4154289657525903f,-0.05077058598072004f,-0.09045048374516741f,0.42006614931589914f,
0.03010321981245595f,0.16619766699766853f,-0.10996050999778985f,0.06176640148475034f,-0.05703262181213545f,-0.513632807071701f,-0.5614018655496913f,-0.19852183952275065f,
0.005464079568805711f,0.06527025224066077f,-0.30177158378329566f,0.11771115650842741f,-0.033002564251364205f,0.36658915715224155f,0.20916163554244657f,0.09565020247558452f,
0.04327111977515445f,0.1696091208658346f,0.1693246527604424f,-0.017926621246981467f,-0.12374226226558974f,-0.291573938652948f,0.053289028803822636f,-0.1751708617035255f,
-0.1575929511917436f,-0.07452409607361477f,0.08669385959878358f,0.04798469439037673f,0.27672274448798007f,-0.14716472100891664f,-0.13058620318347208f,-0.2815841349792731f,
-0.4724209953111556f,0.1054103367280032f,0.15857663237927894f,-0.13612355027057332f,-0.26415390219685553f,-0.19690196723556186f,0.05482298188007152f,-0.36447744053841374f,
-0.1639117343703849f,0.09220690776701108f,0.2888103962569796f,0.04680526169214957f,-0.13740368735425754f,0.2721460292574812f,0.5961867485280419f,0.08132055327314407f,
-0.0809571101721686f,-0.021293302665560652f,0.12554815127747046f,0.23433349313133617f,0.2710948960881095f,-0.3247904152724679f,0.2849738612545226f,-0.18133978248309998f,
-0.036395648406699205f,-0.3421642110263368f,-0.268675443608447f,-0.07013807256933768f,0.27811560464219504f,0.15125619831527354f,-0.18034897179425227f,-0.6305395865776737f,
-0.3758161223303267f,-0.04939114460374623f,-0.14211284873771082f,-0.414948816930742f,-0.014662457115006529f,0.0690259532735305f,0.036789220170188985f,0.21836798695235957f,
-0.29823400795736577f,0.5239379250594178f,-0.1033729428452677f,0.018396135571165817f,0.11864700614744896f,-0.006551402940645127f,0.1925077463112246f,0.10711919609297187f,
-0.25255551421870076f,-0.26172119456491244f,-0.09240964227677918f,0.06896437979673148f,0.15470030132030543f,-0.12136009462087398f,-0.07835726220845603f,-0.19523373997683735f,
-0.1401847376168734f,0.4682166165055365f,0.22777479660632158f,-0.02409142832144623f,-0.005589772814641167f,-0.04641503114258637f,-0.37210963468144354f,0.253843641974789f,
-0.07298749894592804f,0.2270137143261007f,-0.1563978822027798f,0.2553713299000622f,-0.17257291789236143f,0.09426346226057516f,-0.33870426874012605f,0.33424727180719777f,
0.10181037982917022f,0.10822808393628346f,0.0035117532376734255f,-0.13080307512353626f,-0.29204797926536014f,-0.049551566154983975f,0.36869854454398177f,-0.02572722701020181f,
0.05089042524785528f,0.30432754724283884f,-0.2117134236373109f,0.19027227739780192f,-0.03726629962797867f,0.2149353939241812f,0.39012258547295253f,0.25385434581490013f,
0.16294577578069788f,0.12245660153178692f,0.07064559119198331f,-0.12415965969566994f,-0.26310411592563543f,-0.00408226800936619f,0.06269842774414235f,0.2239410094656609f,
-0.10955216378078832f,0.06807398810557111f,0.10992041769482717f,-0.3083984505175262f,0.280487991386516f,-0.2039194594180574f,0.0915685817190817f,-0.24857279976286903f,
-0.10186554476982877f,-0.18405446418015659f,0.1071099354462572f,-0.14031042485615033f,0.13908461643326517f,0.5314070126188196f,0.3578995521812681f,0.30756598819134046f,
0.0936410213518971f,-0.029753727857729045f,-0.1735210554187659f,0.11714000004685535f,-0.08826598643039413f,-0.025657068797770306f,0.2634629555909357f,-0.04693073529141732f,
0.40213943900403737f,-0.045640704221036575f,-0.06696379078592739f,0.22532076132160375f,0.5540479110592482f,-0.07116181993903663f,0.153160385961247f,0.32393845349886424f,
0.5006217723770219f,0.47203627136239473f,0.11896944500844067f,-0.35507650027373155f,0.32271781940552746f,0.18789327922917143f,0.10253410222891099f,0.4113896060660487f,
0.13367760642378973f,0.11297413469178896f,0.2100149832167354f,0.2360527879555932f,-0.6035012658736643f,-0.33265311551777266f,-0.12528507129705083f,0.2235438550299652f,
0.4527858056575763f,0.08696834223473951f,0.1756092132386218f,0.6115371745832845f,-0.20711314929929123f,-0.09490447677310444f,0.010510801678526326f,0.8063272197456435f,
-0.1960889765856954f,-0.14944391999286552f,-0.08982402968762353f,0.15751947593721424f,-0.18152641776980782f,0.2209436691884818f,0.013609619430210102f,0.08341641855767574f,
0.6188685351217218f,-0.012471620608142968f,-0.10963214975390156f,-0.11722870211228131f,0.6159865062928236f,-0.17712763466078657f,0.22321556339325777f,-0.2540458011665588f,
-0.09295143410424152f,0.003285254091530432f,0.1729523545446657f,0.2769343195984337f,-0.08498944588652527f,-0.6287771146999647f,0.04435713995453148f,-0.13219540574920477f,
-0.06638023229958989f,-0.03581350589053427f,0.3664238613840891f,-0.14392353083196183f,0.8163386999774888f,-0.05342881122714788f,-0.18410469646133332f,0.22649244173987704f,
0.14834693360833878f,-0.3941918424588703f,-0.6519953043248434f,0.1421803884497431f,0.2316601256957802f,0.4605246475697356f,-0.3609614369155148f,-0.27283399690799365f,
0.09212564186969716f,0.2826463829178532f,0.03957718246340648f,0.02273216423770305f,0.3514087168155828f,0.2020312805430893f,0.2110519020858515f,-0.26150109959423756f,
0.1382151839136758f,0.21664932706070827f,-0.30208658339303684f,-0.2572032963358017f,-0.2971903859556501f,-0.17957807020476346f,0.2229990500561094f,-0.26307550862569773f,
-0.02369636582666608f,0.3078027893339465f,0.25413408621961575f,-0.18973860576749096f,-0.16209733552977454f,0.2731486894933039f,-0.020660439376267464f,0.33467452485914334f,
-0.12056817698705703f,0.036457412649983256f,0.5451575684992889f,-0.08256393852826444f,-0.10492921540786722f,-0.16472473967630438f,-0.0047824200417325565f,0.04820844999661645f,
0.004871346393208027f,-0.0690162486158523f,0.23875519518454172f,-0.4906124262501258f,-0.05468697327657981f,-0.11561754937841674f,0.1476256036112553f,0.34626374197520765f,
0.4050864822247078f,-0.2939540132505882f,-0.2910477939262608f,-0.3168122650650821f,0.3408240069561794f,-0.018830417283411973f,-0.2359255506338405f,0.057752979976149234f,
0.12720676983051574f,-0.13134036985498723f,-0.24887316981544236f,0.13804352353484883f,0.0581273873146164f,-0.03474980932182326f,-0.08173107513784708f,-0.003223056244472881f,
0.13671596162370658f,-0.10985230604383193f,0.23159030023323546f,0.14522916322847082f,0.2170382722117044f,-0.022298212148848716f,0.33139960272998903f,-0.3878199821371724f,
0.3736683114327183f,0.3421427868972162f,0.1088480823511681f,0.43963396787884185f,-0.09220867938950897f,-0.04247615546632775f,-0.7543889583363386f,-0.005466779190818464f,
0.322878810522814f,0.3744531964746463f,0.3271969530260501f,-0.0282268822512956f,-0.2602610989139562f,-0.21508617414482584f,0.21581544239460868f,0.03609951595596168f,
0.49730799752273436f,-0.4123571003087243f,-0.2606444287172605f,-0.03139343994292004f,-0.22793719102390927f,-0.026210450091908f,0.4807964424514099f,0.1553619325522452f,
0.011037114769507805f,0.2292920452252759f,-0.49041461461577646f,-0.2371021697615177f,0.10283076307238322f,0.16294826140167104f,0.1410061453541279f,-0.16131237326576753f,
-0.22947640233865013f,-0.07324123208431542f,-0.18985907559875081f,0.33304001787992343f,0.12447079997761093f,0.4956328459556264f,0.15045290634020164f,0.11748239168202325f,
-0.007377841117509399f,0.21184276582976802f,-0.08915473968930213f,0.030974040114839754f,-0.24415657938212082f,-0.30617963390889097f,0.026724220151263443f,0.08704796346814403f,
-0.1395522913112175f,0.0010918185155954132f,-0.2953950261683643f,0.12132795480643446f,0.14486591159676154f,-0.17194265294310374f,-0.01042039460837143f,0.20028019198045316f,
0.2166136806163774f,0.1818784035986719f,-0.022236598393762925f,0.1976985092353612f,-0.26682968163927206f,0.17749884817970765f,0.1540148069037683f,0.4057701314601914f,
0.021161225113945914f,0.19426702071606025f,-0.0022917647865593246f,-0.06693499681298487f,0.0829165167506658f,0.15403133829134225f,0.4191103979867313f,-0.11979045571526538f,
0.21635365174019597f,-0.15683506325869412f,-0.6652263519312576f,-0.4425793208731299f,0.07387474785975442f,-0.10896665015007641f,-0.2942459387944249f,0.1671827533465446f,
0.3340393002144656f,0.24701060611334558f,0.133606222587482f,0.12705267320255903f,0.2604794834776206f,0.5471371702411193f,-0.19190475078909014f,-0.06262318076111921f,
0.9109631743010189f,-0.44196468756910157f,0.3387636034141599f,-0.16911947137333552f,-0.2717265589626032f,-0.23385350785510448f,-0.24941482505314344f,0.5997666740051946f,
0.2625761395672668f,0.23161621207713728f,0.3506932378397073f,-0.13256276145187906f,0.28593179203808544f,0.16239610948955252f,0.15630418041691507f,-0.2358666549997509f,
-0.03449702327686675f,0.1880987862793401f,0.030921632083663338f,-0.22160749915185873f,-0.14363596855262212f,-0.09671229297411875f,0.38388558529385247f,0.31975897123190683f,
0.08205675022196175f,0.09784796540228377f,0.05527736128798745f,0.6145399698516985f,-0.17627041472632163f,-0.15162860821045304f,0.0417895817063842f,0.32081242493166146f,
-0.03817566575250344f,-0.10623291637331454f,-0.01515122904927687f,0.1106047512705654f,-0.013399531294639232f,-0.28585467342041276f,-0.2028641362451321f,0.252195889787015f,
-0.18476073326668996f,0.3886603703602481f,-0.0008445515949056896f,-0.3039952136282307f,0.27917375803280153f,-0.004896273306367287f,-0.6137542122176713f,0.18632038094324385f,
0.09300600053962332f,0.04270595768745991f,0.3542181929914687f,-0.0811161605995403f,-0.2481167525652203f,-0.04342988815886587f,0.7073346076516001f,-0.2575582269382164f,
0.5459698132424059f,0.35935371213128325f,-0.08994401398165781f,-0.36807943580840846f,-0.1856589997406148f,-0.11552203246715692f,0.3141814595559704f,0.3032608951367537f,
-0.2783138804235876f,-0.16675082897439072f,-0.30533925558779434f,-0.09292646839460922f,-0.17959400209321139f,-0.007871007164375743f,-0.3155457199301867f,0.024590912654449588f,
-0.06612667335402576f,0.4351265475531328f,0.09215716551418748f,0.3175709497054735f,0.09134571014333029f,0.09312846144694371f,-0.09829271528410796f,0.03535360362303892f,
-0.13919098218264256f,0.030568945270133156f,0.34621747805983344f,0.19064726084368022f,0.32164035569187993f,-0.21565407985585813f,-0.09935708483942017f,-0.04733021339094974f,
0.0634186548748613f,-0.2557000259992844f,-0.11769743783976368f,0.021667233037849783f,-0.38489786959971656f,-0.02123384032482258f,0.08674338041358645f,-0.03955940519160554f,
0.1716889172909247f,0.04021029765293148f,-0.04873728238169733f,-0.18614281739298744f,0.12099940522074998f,0.14865036845011087f,0.4045359214962992f,-0.3665694043578944f,
0.010501758419061695f,0.13716403695236476f,0.8202450628367663f,0.12020420949489889f,0.02914798029870451f,0.17517502729333212f,-0.050091406900656124f,0.07076645627619721f,
0.42635918817783336f,0.1774048860344729f,0.10986299856906209f,-0.07553902380570279f,-0.07604185072872213f,-0.06589117647575408f,-0.40841551132417964f,-0.156224352696082f,
-0.25325624363543076f,0.6196766349333703f,0.017072633846305717f,-0.4179741410780056f,-0.23443053961965948f,-0.29312370401904353f,0.4500344759861398f,0.23789725560280298f,
-0.5256682609519364f,0.0713193897490923f,0.057746407700428264f,-0.29084559514550756f,-0.2864782270728324f,-0.07916735270201633f,0.17736251450627896f,0.24916120451982837f,
-0.15168835077348047f,-0.2690890840800049f,0.5475278927648154f,-0.2654231467011061f,-0.13463496931756025f,-0.04841645272351634f,-0.034125130911005996f,0.28062144748187057f,
-0.0029578796468863675f,0.35267351480141457f,-0.4928082622251568f,-0.30194702365684073f,0.33851922448264604f,-0.2599165134695231f,-0.7179694692550987f,0.3455276130763926f,
-0.4130256100735018f,0.10426587785144638f,0.391932149644361f,-0.488200844552583f,0.15856160504630387f,-0.17785105710356533f,-0.36399033975800854f,-0.25209151148524245f,
0.2477175906955809f,-0.10562937240306493f,0.020137230602745144f,0.03360688963683918f,0.06643300626272662f,0.21042295917623374f,0.03521597189621805f,0.0027563358260615832f,
-0.17946552870974053f,0.09573814131712645f,-0.4565217388807641f,-0.6038675676148162f,-0.46386369469182953f,0.5143716756992482f,-0.18901991013104005f,0.25183778623717396f,
-0.14529442719356067f,0.15588904137804077f,0.3731599303850086f,-0.12148518590272246f,0.5594177149409282f,0.3338173590013706f,0.030434774796429163f,0.017603655175568455f,
0.030926064796602114f,0.15339699466893325f,-0.2342721780287662f,0.1628956959315171f,0.012469229621991887f,-0.3081716124516707f,-0.13569337382886312f,0.45340751763235143f,
0.33684364240754106f,0.15075351904497086f,-0.21560288673417632f,-0.2977139448491201f,0.12593391670574447f,0.71543637410729f,0.04480868427071839f,-0.05191072925354183f,
0.25032090156978565f,-0.1572968540671444f,-0.21491641583204268f,0.2692351265776674f,0.18629463723070785f,-0.5535122596351559f,-0.4297361541997782f,0.03915282222915536f,
-0.17864454596550808f,0.10109313831806557f,0.07648694715617335f,-0.2358515613339376f,-0.1968930271658571f,-0.07791215172734496f,-0.3063933934593444f,0.07095192908042794f,
0.016293276600691794f,0.08515806435012635f,-0.1344702128391981f,0.09825298651450515f,-1.000634964242772f,0.1826589192363521f,-0.04727682959121565f,-0.30831336629491984f,
-0.1032563109241742f,-0.43966245206829596f,0.23538268334373888f,0.3428459001255565f,-0.16808312754753404f,-0.008847649858511289f,0.1899544207733128f,0.4541134662582992f,
-0.41824580817536616f,0.07893484142653856f,-0.09485670280323877f,-0.44063049222888623f,0.068824377409597f,-0.019430971662525394f,-0.17955884790251328f,-0.005368522024737646f,
-0.08254430079098059f,0.11898897220764683f,-0.018259811362017476f,-0.13726978974580226f,-0.0899546620762432f,-0.28849251592419795f,-0.37792771142062415f,0.5672284041962605f,
0.1353382557340303f,0.4051731002756856f,0.05629455951265183f,0.08154751523283922f,-0.5636195374272316f,-0.2739374820735913f,0.11886615991041431f,0.012521127194606137f,
0.3182036869408018f,-0.21325996613898796f,0.18542131866571449f,-0.20910938499920387f,0.13397884176399086f,0.31060541917469797f,-0.044690256640504716f,0.3928541973077032f,
0.27165211041132775f,0.18958133855714243f,-0.21372658769295264f,0.1416046920099361f,-0.18445560384987336f,-0.1017695526230201f,0.12436943969601996f,0.5771729227958415f,
0.38573842046013473f,0.004089752389756282f,0.532386122736325f,-0.10680671598575732f,0.29028489474553104f,-0.054982253582525044f,0.007879037337413408f,-0.07062376718546988f,
-0.1866559567175279f,-0.19698591801284326f,0.7979975568394898f,-0.06402633592467621f,-0.05147123760624229f,0.1283067977056056f,0.2526851524152696f,0.04052268093114288f,
-0.09727394272660395f,0.23554907456058397f,-0.3174245320922124f,0.1204552724095387f,-0.0965514643684924f,0.18476723732715378f,0.22502103899129308f,0.04534169122247315f,
0.111436955215024f,-0.09545471593329687f,0.0363954938236396f,0.04505702814636537f,0.09929217216879099f,0.08871691344012493f,0.00519494023216738f,0.4009785483550068f,
-0.14814544094093962f,0.06571450999455619f,-0.009101809393598349f,-0.13647058260090061f,0.4041288363372622f,0.45187316606690564f,-0.015925192636539187f,0.46826833569718945f,
0.05573935163756183f,-0.20141067302794233f,0.21893429478705215f,0.23561959836255603f,-0.10774552019107737f,0.014761952787812078f,-0.5393245993636202f,-0.43006454286483636f,
0.5090830445373125f,0.19896821065445305f,0.336918784180788f,0.2348682061744542f,0.4769877404389076f,0.07705404470842571f,-0.03845973558906082f,-0.3136434413158846f,
0.10468991255560661f,-0.18771220723015788f,0.23127974743829227f,-0.13930703681088258f,0.2279546634661293f,-0.5119779101663856f,-0.053865942671984676f,0.15833337989380064f,
0.21382694633905527f,-0.1082961615960507f,-0.2372904524432336f,0.048001075381148874f,0.013442963467218492f,-0.21290602948241083f,-0.06350124229251873f,0.11022744310488836f,
-0.40983349399095315f,-0.2440013876117801f,-0.1674032193458638f,0.14509294278403187f,0.3872747441545058f,0.11424777865810874f,0.029141965091835864f,-0.4420237355668889f,
-0.2514874526006745f,-0.20985268578595848f,0.19005650262233179f,0.09376696283446206f,-0.7042450404174844f,-0.012085269479672058f,-0.03580722921514348f,-0.29222702609920276f,
0.055311624130190605f,0.08095429055233119f,-0.2758316015784703f,0.04193450171004382f,0.12929748111436604f,-0.3688917036631841f,-0.19770545219011906f,-0.28522694963665496f,
0.18656650681282816f,0.3558547185250222f,0.19203766948975562f,0.07272425564643653f,0.22963465092347973f,-0.09921667745393908f,-0.4158465470947987f,0.20749647944622648f,
-0.6089926679123957f,0.02827849756444245f,0.5325705197077852f,0.4021345156336353f,-0.3040880040961211f,-0.5713210289373604f,-0.17521469157890174f,-0.3311548401634886f,
0.24877827719464585f,-0.27872594981188215f,-0.3259625880420619f,-0.2248766919698579f,0.04749020078232246f,-0.7208987237875788f,-0.09997546227562558f,0.032043564838058924f,
-0.3687317538185269f,0.5274909641999529f,-0.3083563631090196f,-0.4518500083322283f,0.07206767342162095f,-0.3754039814916676f,-0.7404522448876353f,0.233758527139603f,
0.23993905656844544f,-0.11780374115888584f,0.13213239799950363f,-0.14834247546593154f,-0.7041380420091449f,0.24234889013957883f,-0.23358808352291674f,-0.09054716085030583f,
-0.49478263506504605f,-0.09038495226340472f,-0.19042206743754192f,0.012618819841901226f,-0.04893426532844663f,-0.4154304441131136f,0.2567494115583175f,0.4021434868260784f,
-0.1539344280159845f,-0.40445315973156976f,-0.23820803375606797f,0.10242869209988668f,-0.06094873542451021f,0.10543747729082038f,-0.4935236803751817f,0.5409543002309308f,
0.037240175298763285f,-1.0744424362133984f,-0.03243164019289551f,0.10753830610888385f,0.29059972357506275f,0.054764656830674f,0.26361676797790146f,0.024251708693792645f,
-0.03779537140852699f,0.6219389687810325f,-0.585171133133231f,-0.0138764866527919f,-0.16372204269760718f,-0.02760869457531796f,0.1633748951475416f,-0.09794757508563016f,
0.04075250673954541f,-0.0015031705007539594f,0.15643157145813788f,-0.1477417004386861f,0.012988959816475226f,-0.033176778901614794f,0.13067335920870035f,-0.10604887027645636f,
-0.031175626366944324f,-0.13967488662149363f,-0.09391141789990703f,-0.14696449043516308f,-0.37502168188978324f,0.25426403775474105f,0.0671891996311715f,-0.06629467998122572f,
0.1686774440511903f,0.1281106486309033f,0.08549357557613345f,-0.5925631800393586f,0.49518637445085617f,-0.21267001796515417f,0.3069196937641458f,0.13122712573462236f,
-0.22567299827238232f,0.08630284019323442f,0.11083158445236296f,0.1612815014244494f,0.20529061913816696f,-0.08108537052479912f,0.33341694599048977f,0.19334072741585873f,
0.19199304022426922f,0.045806741121695714f,-0.4974942883534372f,-0.18244509458332214f,0.2582985219050402f,0.28622649083907614f,0.44871018637102456f,0.21568477894084712f,
-0.1264852240065952f,0.11286278846781683f,-0.051852299149282154f,0.29535883548414515f,-0.02452728504435302f,0.23323108856672295f,-0.21812876288771463f,0.30452052894553433f,
0.2707921873456361f,0.38609946815818785f,0.05567402184837279f,-0.1671443099411012f,-0.2674362688698282f,-0.25403215782201005f,0.01873618031443541f,-0.1421420675013737f,
0.38116946770178595f,-0.2041518516056328f,0.050341092832910675f,-0.29832500610870377f,0.03251417287745429f,0.2575234164606578f,-0.12703363279612181f,0.22132423384317587f,
-0.1744269369615884f,0.25533549231309205f,0.3272076709825299f,-0.07958654550111124f,-0.2740768128101614f,0.11287186915403419f,0.3482716320307771f,0.4102962166472952f,
-0.07284577806463148f,0.04942947329324839f,0.37468115529280804f,-0.5717128806185868f,-0.02440369095290946f,0.11205758698976442f,-0.3403857346039492f,0.007095411130463354f,
0.08104613997478084f,0.25179399184004686f,-0.11652964647733231f,0.8653766580923037f,-0.4365708719892175f,-0.46878284397193465f,0.4303254547478902f,0.351642407527426f,
0.6951019611905482f,0.21457053298223228f,0.06138114092523321f,0.24607929651965527f,-0.2976260220943475f,0.3274382814705384f,0.11138684988831428f,0.3519577850002978f,
0.02382139581058421f,0.22668845310806662f,-0.1435664349534272f,0.16537625229854083f,0.010290023925536934f,0.2272907189496471f,0.05105968555218987f,0.6918958343109013f,
0.3551409626540053f,-0.1787700634295974f,-0.31636005058353867f,-0.44841388914799857f,-0.055506728932270155f,0.05922821979441331f,0.026960785137696806f,0.21813690404216204f,
0.32082477754617716f,-0.16922071843255143f,0.06519728242923277f,0.008505124904797075f,-0.19240146995415877f,-0.1947275535864028f,0.2560229039266185f,-0.11759119846752955f,
0.08115524441117802f,-0.15257414751986284f,-0.0557739373411216f,0.020397468313642975f,-0.4414315972740786f,-0.06756796486503444f,-0.22665113475534826f,-0.07182290854089232f,
-0.0959838760680465f,-0.564982822329756f,0.09580408136403962f,-0.3260159532128353f,0.7225538077888234f,-0.39991178204097994f,0.036713764107350624f,0.18871408839265258f,
-0.37538434052224284f,0.11571752482312875f,0.0759785297261864f,0.1004983991548461f,0.08374192122397187f,-0.03276913953762098f,0.1261230658302268f,-0.3673507135559549f,
-0.14910461978607667f,-0.25303955786065063f,-0.20256444643107008f,0.028854246659416168f,-0.036255440000272185f,0.06448738517100118f,-0.11462052038692074f,-0.07881958452945308f,
-0.28667447819023256f,-0.06944025288672914f,-0.3099528660661771f,-0.07885075337138588f,-0.33517209638732515f,0.5392090205016943f,0.3006342160317112f,0.09318363894899717f,
0.1506722588942484f,-0.11712590108231156f,0.053298094433924f,-0.05886024996907036f,0.28165752490900314f,0.20252663696036927f,0.043532690045813775f,-0.4206831097837541f,
0.09912136632098892f,0.29694926798528554f,0.02756659592539359f,0.368963049138358f,-0.1259921761311025f,0.15213751321138286f,-0.0265576451003552f,0.1386966768817773f,
-0.3332355550317462f,-0.04742497493849362f,-0.17982566695370816f,0.06606087479893599f,-0.4342495725622354f,-0.590926082478607f,0.11136893677691993f,-0.36476815823926606f,
0.4229369211941041f,-0.011724535649854961f,-0.026890600607442243f,-0.01403147498761424f,0.41939270211666557f,-0.39577205657889736f,-0.29838305124019904f,-0.020934515506005044f,
-0.2870083393841062f,-0.31490210587378537f,0.0395395401843193f,-0.37783972670293475f,-0.04645759300573371f,0.3575490878139974f,0.29009122208219645f,0.1756259953871997f,
-0.16122887189213644f,0.6047208866605511f,0.687689650311764f,0.32333465050187626f,0.02498660578620123f,-0.4044947531319019f,-0.06779315912048788f,0.10639064568975756f,
0.1297998729646476f,0.48046499047132396f,0.09731361157935163f,-0.034194609905599395f,0.09644458161878898f,0.47850492816665424f,-0.11734269946227328f,-0.022460875421149065f,
0.02442954013468326f,0.3558640327648151f,0.1877023600880607f,0.02248613573210996f,0.2741355383571598f,-0.03859595211165692f,0.5223122375688539f,0.7434571154013432f,
0.034781954429034444f,0.018503373917611265f,0.2757512718326751f,0.04330291502478173f,0.26126399115118737f,0.3324000337204838f,0.6760445070211216f,-0.1328180767228241f,
-0.3466503118030781f,-0.20281509196336026f,-0.07566783721256948f,0.4717234400473975f,-0.13792823991114692f,-0.6645313953475113f,-0.8990148180047901f,0.3965571337754726f,
-0.0199794173311895f,0.4875454113459948f,-0.14588882227721847f,-0.3889111453045405f,0.1269659322357579f,-0.6629421144133107f,-0.40829728984204955f,0.09943945221434378f,
0.13847279103021223f,0.061961600053227414f,0.4167188234488061f,-0.44271373287055305f,-0.0931112724023204f,-0.38082220051971544f,0.3303803412062593f,0.08723947335495193f,
0.24017196134227287f,0.3493532667769307f,0.26617951397854933f,-0.004841502068254513f,0.3028255748909806f,-0.07143729676008415f,0.17696478071234986f,-0.03961268450853591f,
0.035693909781196714f,0.40790340127381997f,0.10785540391602282f,-0.06584650856135325f,-0.19076213981046128f,-0.6829045607258731f,-0.38421889271761744f,-0.2839351542588122f,
0.12915344251648925f,0.3937400488219004f,0.37504499600222696f,-0.04679439436900631f,0.19880314228228432f,-0.6683612360758154f,-0.4683655407450285f,0.3223418656762276f,
0.2685879171871792f,0.3557955678163818f,-0.4148050188016014f,0.09120237656255627f,0.13907049625082077f,0.06633997604810185f,0.02565605076428702f,0.4071625049300724f,
0.06808861534834439f,-0.1975662542955989f,0.1024675995848257f,0.5842316958722983f,0.2548207101555177f,-0.07142926644168762f,-0.06521150104030107f,-0.012866874004138038f,
-0.08453146810610251f,0.08587124073618461f,0.06435646848691441f,0.3448382157796145f,0.7305488266927572f,0.1787063147413896f,-0.11251441637371075f,0.4150429673838593f,
0.1530695452764121f,0.32884565259300036f,0.08941287973308142f,0.28064640315469375f,0.14275204513615602f,0.3348386911014006f,0.002244327644178873f,0.30072576714293986f,
0.32674444205653214f,0.24655244712897267f,0.5895043210207256f,0.3968552372185794f,0.10003622974448569f,0.4082386754720482f,0.1312635753367753f,-0.186116780069765f,
0.4880721617396598f,0.26530676897141814f,0.36285782280216033f,-0.02637460356322725f,-0.14634052252880142f,-0.158738038801518f,0.09439453786193211f,0.17299780961380143f,
0.33297868784503987f,-0.12952072766740588f,0.33999351067871414f,0.07546094891914998f,-0.1975288348637762f,0.38691966961161406f,0.14438306827795258f,0.11801692356333934f,
-0.00819498281673361f,-0.04745073031696996f,-0.13626762679934226f,0.3896019200307355f,0.053078015259299f,0.11038004556447081f,0.24874678587866159f,-0.381155276618329f,
0.38226735323562755f,0.0006130595921525061f,0.06253244429020725f,-0.5077381845461885f,-0.14479011899660876f,0.0631338296938601f,-0.3603209989144283f,-0.19018012340318097f,
-0.48219800355676395f,0.09309969120815931f,0.3060797933989193f,-0.004521021645098896f,-0.04024950456680991f,0.1681174359529573f,-0.5324805075841686f,-0.2525433686077041f,
0.3092488376270133f,-0.24078594319497468f,-0.416993383837082f,-0.12796163398206323f,-0.3425545618820586f,-0.009794144218165516f,0.32437319375709384f,-0.33701471875011063f,
0.30709180104681977f,0.16432021075076159f,-0.3474480532686819f,0.18419071249424623f,0.215964945564851f,0.2573595571011646f,0.02537521756866562f,0.21923012975825387f,
0.12123048345793198f,-0.10923768201903883f,-0.6446048362792915f,-0.26778972650409344f,-0.6233493208823643f,0.1817009793219389f,0.07818829566532948f,-0.28873599561990904f,
-0.1789302895632788f,-0.14085749888148794f,0.5795310271259644f,-0.15290425368747357f,-0.3450182498446794f,-0.07469029967052003f,0.1922275271021211f,-0.4492092343921474f,
-0.26539655483238184f,-0.2843771027472748f,-0.35797173124921855f,0.2804835148118115f,0.046506311932407805f,0.01735578947145285f,0.35702845821514206f,0.17872741624088487f,
-0.1457473991546654f,-0.156361653533199f,-0.051163411200518275f,-0.10380509829430923f,0.2043208877523019f,0.21674030284872056f,-0.4808066625080255f,0.22011534993275358f,
-0.15528921225047632f,0.4337007909673767f,-0.10469284892572978f,-0.4646095140970497f,-0.12071158787849212f,0.10139328761090709f,0.004408617747953596f,-0.044413884492103185f,
0.3177896386198872f,0.12342740555652162f,-0.325787783717979f,0.709207050724295f,-0.2947990757725972f,-0.06050013086011557f,-0.18688905924063165f,0.2085226689917172f,
-0.42200615994658325f,0.12645225043891686f,0.52384026779892f
};

float bias = -0.153603880836854f;

#endif
