4.126831079185650508e-01
9.711505574856320322e-02
-1.977153004012125737e-01
-1.012893002267835907e-01
-6.659134250360242424e-01
4.465576712107720558e-01
3.141193213524542949e-01
-2.983879273977436686e-01
-3.323344750629134148e-01
1.499645141211409238e-01
4.673890212136320166e-01
2.985308316480761448e-01
-7.748182159015416792e-02
1.023721381514833134e-01
3.357256443363784149e-01
4.379234464612969946e-01
-1.768019453223582463e-02
2.608530799409631840e-01
-6.392866782133130310e-02
1.912321983949652748e-01
2.234600160595473783e-01
-1.388839819641241036e-01
-4.756123911256781578e-01
-2.593620500205829904e-01
-4.686905988637289355e-01
1.701384216223528756e-01
-1.185538993313992179e-01
-2.440214287794806314e-01
-5.320771146524914119e-01
3.380585671339624287e-01
1.628836188874327184e-01
4.585613406955622029e-01
9.156793935279358698e-02
-1.355822119793842762e-01
2.000253827542652352e-01
-2.520737548885250146e-01
-1.511150035389657031e-01
-1.256761472117075562e-01
4.004607434430074164e-01
2.950478516661815820e-01
-2.251802880183653432e-01
-8.290385194803520652e-02
1.614449851013096127e-01
-3.370737952607392313e-02
2.036820022871340119e-01
-5.689898781477434886e-01
-6.356738157920972798e-02
-3.897023294005431265e-02
5.229729146596578428e-03
-2.081691138656457662e-01
-3.493730853170136097e-01
-6.345001161679025836e-01
-6.685671039896463885e-02
4.696460713868323977e-01
-5.696881130632200918e-01
4.442025718534436396e-01
3.827794325707553069e-01
1.415485195276903752e-01
4.005793114307424352e-01
1.193775336075784607e-02
-2.402261771838490323e-01
-2.985743769932844294e-01
2.071692830621806869e-01
-4.614054544052002826e-02
-1.296571572179908670e-02
-5.063357467091934155e-02
1.230211377843610648e-01
-5.161448359087774523e-02
-2.117008389368821297e-02
-6.064101338787711848e-01
-7.128855030659100867e-02
-4.829487377454831920e-01
-3.752230893657974020e-01
-5.846428810166095502e-01
1.043907861186306879e-01
1.264325166264904272e-02
2.630695496797922917e-01
-5.652920885378086568e-01
-1.589139998096113782e-01
3.639719780004758154e-01
-3.041758055326868604e-01
3.212892628111668758e-01
1.013398191173411483e-01
-2.501687741118829855e-01
4.674933351420470506e-01
3.116710988862661513e-01
-8.101384666748355778e-01
-5.238083599428391274e-02
3.562711660976889405e-01
4.998147384301047103e-01
1.168735748886084863e-01
-1.887162499797998549e-01
2.719260380809114253e-01
-1.532735075800737146e-01
-1.558505413641103066e-01
-1.599928806771693801e-01
-2.833477214125298960e-01
4.775608174901244674e-01
-1.676060943792296032e-01
1.304593936566026194e-02
1.742479925022757670e-01
1.647073757472231059e-02
4.501889546236640394e-01
1.134847399337048784e-01
1.295134534186427322e-01
-2.622157776591395317e-02
2.491832421622878768e-01
-2.520597920446039641e-02
3.955863291351938704e-01
5.235783294320496550e-02
-5.666694708300931138e-01
2.807771282615536546e-01
1.292924402020563697e-02
-5.666841125764349174e-01
-3.221989591180904333e-02
-1.128144383524211369e-01
1.088452234663749574e-01
-1.435137638790049130e-01
-1.380056336585933074e-01
-4.121887978547364995e-01
-4.626531243800448556e-01
-2.401279423216268194e-01
2.197591383491192263e-01
6.884097333976920696e-01
-6.905903586661925608e-01
2.197168196334083057e-01
3.725478716604344598e-01
8.537507939050696937e-01
5.383090335484959077e-01
6.126783733341933241e-02
-3.218324084101410465e-01
3.368120362524242295e-01
5.008099976183361113e-02
-1.733150719675298490e-01
1.392312652709099263e-01
1.063188730874395360e-01
5.377104275115768273e-01
6.061485632828637060e-01
-1.883568410580554464e-01
-1.399205615125187763e-01
-2.172408360021208795e-01
5.164489976551107642e-01
-3.445172198281916676e-01
-5.478066810715630508e-01
-3.504373992386141112e-01
-1.328511474542473647e-01
-3.031420662865502713e-01
-2.293523759167488407e-01
6.715691844116053466e-02
2.549126874117091934e-01
6.815146136446128544e-01
-2.226125396384126820e-01
1.251193327125105226e-01
3.554559162312532772e-01
6.333235577923246318e-01
1.366629999919998506e-01
-2.288584352674563616e-01
4.442103864807659709e-03
-5.147566364654356796e-01
-1.808589404121022787e-02
1.879051769932155447e-01
-2.744861103526036739e-01
1.857797355787627613e-01
-3.410577872612212125e-01
-2.584128363657374194e-01
2.032963895975993251e-01
2.567330502394223890e-01
3.763604694448047239e-01
3.249780611606073455e-01
1.591198794172687669e-01
-2.740960535947393195e-01
-1.696913479235017674e-01
7.708008674437227814e-02
-3.917675835144159291e-01
2.869514797670342024e-02
3.316383337378615015e-01
8.440291662395292549e-02
-4.766704136311574191e-01
2.000909813372238333e-01
-4.419737505943818201e-01
5.923409318809648161e-01
7.457422627058243880e-02
-5.240503164776781908e-01
-2.141891006991053781e-01
6.009694135125705911e-02
-6.197853038776747203e-01
-3.425739807561670180e-01
-1.436121562077278813e-01
2.438950976583452446e-01
5.193633114074585472e-02
-3.385018394460136137e-02
-1.471373511657650679e-01
-4.773332954824302532e-01
4.316773466792071523e-01
-3.598312364139975017e-01
4.228134500614477535e-03
1.002754476997696625e-01
-1.168106733084858101e-01
-3.227934329928539015e-02
-2.081152725353765665e-01
-1.364134451108554025e-01
4.508887687010616763e-02
3.984378853497500539e-01
-2.600254362304400477e-02
1.306542519932839264e-01
-4.014270910775200041e-01
-1.748663378198337670e-01
1.218374961802871498e-01
3.267406923387012330e-01
-1.677927268858407095e-01
6.757188799790241340e-01
1.758316747907363309e-01
-2.743005982200167892e-01
5.856815843732544186e-02
6.462962638115153924e-01
-5.642917402996124876e-01
-2.803456738655978886e-01
-7.936452656277666329e-02
1.174849351654766588e-01
-4.661210581991732105e-01
3.560039587178709386e-02
-1.016257259115069117e-01
6.453335008677559825e-01
7.331344076020260836e-01
-2.090517256617727693e-01
-2.812190637568115145e-02
-3.376196801929471358e-01
1.146563469221923738e-02
-1.681180957582817659e-01
-2.244330700209330176e-01
-5.211152253712587612e-01
2.820152669325680095e-01
5.637453536785351493e-02
-2.702330329970248357e-01
1.189305350260320276e-01
2.658059664486301377e-01
-1.743619543774976299e-01
2.459140718104224355e-01
-1.691081765624295463e-01
-3.446423229664090093e-01
1.247490038366395049e-01
6.188593687130183874e-02
4.830828761448758835e-01
-2.099078046119539909e-01
-5.665247182714554242e-02
1.373749536498402590e-01
4.161398913165347269e-01
2.956620578648872302e-02
-5.004718032244283021e-01
-1.939995092013933053e-01
2.134599497073404462e-01
-4.655825702962859691e-01
-5.155389119476324611e-01
-4.877270725497722670e-01
6.855217172202227038e-01
2.599859078930731315e-01
-1.882099805822892713e-01
-1.153076169061121176e-01
5.218051435019566142e-02
3.293343706518401248e-01
3.209689582966442911e-01
5.583021749504687992e-02
3.787728587088235455e-01
-2.693562059823464416e-01
-7.991306805237552435e-02
1.564058054147726999e-03
-2.814107685223609656e-01
-1.576538420642770513e-02
3.568793555284508479e-01
2.921419825292137507e-01
1.147819769012673741e-01
3.654563443606408946e-01
3.663058702184309734e-01
-1.129253507823719666e-01
-3.833047249393411460e-01
2.673886780324445378e-01
-1.535292323069682441e-01
-5.836076737155271310e-01
6.358564872691978287e-02
1.973255631872802007e-01
1.742004326258992514e-02
3.661917804213680322e-02
8.941007249771646889e-03
4.645069929448921719e-01
1.961960728300850276e-01
-1.581636345537203170e-01
-1.052134755875876737e-01
-3.112268090439969104e-01
-7.127420663285938263e-02
-3.133797593496830958e-01
8.099328967691882264e-02
-3.113482942617205596e-01
-2.034000344543853908e-02
-1.813255380372320869e-01
1.049272197594955242e-01
1.705641874170943095e-01
-1.785651070001871565e-01
-3.268697098384693023e-01
4.587880496438174194e-01
2.297948204708981368e-01
-3.895815755633285637e-01
-2.561908738215857295e-01
-9.655006394642910716e-02
-1.139449209387906614e-01
-1.335277694200997511e-01
8.628690604822442101e-02
-8.207323828604083660e-02
1.158991327840718510e-01
-3.041547988684499826e-01
-2.701297383366913496e-01
-4.648725879952663731e-01
1.461847932683469908e-01
-1.814527704547786446e-01
2.297103904618346959e-01
-5.804074231748385104e-01
-1.559005547672348557e-01
2.761161721110566569e-01
1.030191159826981812e-01
-3.941738010890971089e-01
-5.686451988152265713e-01
1.274798076491297227e-01
1.623111196227220443e-01
-5.195185048992379678e-02
-5.989985609038461084e-02
-1.758329688186925088e-01
1.810298609370734543e-02
7.982460632131953282e-02
-3.505881940135746055e-01
-2.212028378060607314e-01
-2.794798552241695710e-01
-1.428771173183497056e-01
5.685755963189943751e-02
-1.013563342817818819e-01
-4.276534407856910636e-01
-1.910767290309864641e-01
-2.319792905583840936e-01
1.157578281778627455e-01
3.783080932735734536e-01
1.697618473385550109e-01
4.715610232222448156e-02
-3.367170211379532652e-01
3.973042188384924289e-01
-2.884072074225180193e-01
-1.964257837159007116e-03
2.004534631859873628e-01
-7.264586450857367372e-02
-1.266917991341461325e-01
-1.196891419958656111e-01
-3.267470858614175966e-01
-3.532631634933312559e-01
-1.304573242010561296e-01
-2.907597123418413920e-01
6.194081523267625129e-03
1.276766213714335962e-01
-1.878220915059484186e-01
2.675611918604985096e-02
-3.773887984556239528e-01
-2.626909947093600262e-01
1.820234950089872905e-01
-1.604797365193866010e-01
5.039619200577028640e-02
1.835828384152468906e-01
1.965714916047521799e-01
-1.573513170869322939e-03
1.276647557892760746e-03
4.732839773789957599e-02
-4.215783194905589615e-01
5.377570560782951592e-02
-2.886191305659899231e-01
-7.856895926945451844e-03
4.193611055822537015e-01
1.983272395076527417e-01
-5.858653687095574658e-02
5.512114816177030724e-02
-4.526599743683481503e-01
-3.174852427186604376e-02
-8.652973924701788666e-02
-9.522554688948953183e-02
4.954545730387978075e-01
3.341131002099198555e-02
1.461353669007476874e-01
-2.745009375802208162e-01
-8.874636595778068182e-02
-2.697852882111098083e-01
-2.308487132299418543e-01
2.796564726085135066e-01
-8.937006439241113043e-02
1.109226180875184792e-01
5.301736873672272532e-01
-4.012439689070980420e-02
4.070137970286298312e-01
3.611934394590020636e-01
-1.296632963001955830e-04
4.323904661822099427e-01
1.707014991712730023e-01
-5.743834085606591700e-02
-4.780871935453618882e-01
-4.434007107084985549e-02
-5.334308073118295690e-01
2.237350978990931827e-01
8.183112617883228634e-02
-3.767314798392257247e-01
-5.098635266998889914e-01
9.994392757976293395e-02
-4.595707664397547521e-01
2.834305852992249353e-01
-9.233660826882249262e-02
-2.469243428061574097e-01
2.941096966455290437e-02
-6.397321367685965265e-02
3.701728835918315086e-02
-7.822345424543265813e-02
3.331162911029574292e-01
4.565953387614267167e-01
3.022321803614191338e-01
-7.945526678946481999e-03
-2.899683256873957782e-01
2.550285699642975690e-01
4.007298184811726172e-01
-3.417870261694755940e-01
-5.964101587624639489e-01
3.432338436125149939e-02
1.898858463105694214e-02
5.142240995873949005e-01
2.691576540767618431e-01
-2.679124698024706319e-01
-2.565665360544087115e-01
1.200346052202419800e-01
-1.551324082823857253e-01
-6.086280618038389933e-01
5.085605158183381658e-01
1.234546933491155463e-01
-1.914576909528787896e-01
5.299198512809937256e-01
-3.400654840092683928e-01
3.382203781323703251e-02
2.714430131326852833e-02
-8.440074859376951733e-02
3.481628246268060334e-01
-2.700815568175469333e-02
4.548038525333435861e-02
7.609254841291368532e-02
5.744390383949801032e-02
-1.706469333060385007e-01
-4.567928632029930741e-02
-3.538034732011480221e-01
-1.803538787301220137e-01
3.406470344629466962e-02
-5.126617917466101959e-01
-5.524387952317683093e-01
7.829646930795609860e-02
3.408177631752271064e-01
-4.352756982428496735e-01
-2.741694866105507007e-03
2.932362277411281748e-01
1.633396124473243949e-01
4.535945598576088256e-02
2.849368938547068748e-03
4.228243819061522357e-02
-1.548915042603813408e-01
-4.834792772715942183e-02
-5.655851371740257261e-02
-3.972430476202928884e-01
-1.226481522445495992e-01
-3.344149584946569664e-01
2.329743093355791383e-01
-3.788169158832797034e-01
8.837817915547713232e-02
-1.855053276111635063e-01
-3.658805419055920494e-01
-4.653792788590201956e-01
-1.128914492499739630e-01
-1.440533335321402819e-01
-3.774759062543272137e-03
4.463755295342302504e-03
-5.618021781461390862e-01
-9.036970002344948960e-02
-3.001813162677555158e-01
8.662291665765729787e-03
-2.857142367430131821e-02
3.138530108228195226e-01
-6.178459606534385529e-01
-2.205000380868727128e-01
-2.500262565459268060e-01
-7.604314055438061992e-02
-2.795492846829440436e-01
4.382791280017711566e-02
-1.540245345721039660e-01
-3.615248959158912645e-01
-3.670882021476787327e-01
-1.297992275119795869e-01
2.803427825901508991e-02
1.183174841967826463e-01
-1.670608333680853319e-01
2.415101197719061454e-01
4.557554394888710392e-01
-8.306866211276869860e-02
2.342582482141964961e-01
-4.228625696075359319e-01
5.216623078747229317e-03
1.716971799189372788e-02
-2.418383562906337159e-01
2.510666539459970314e-01
-7.500548481662062950e-02
-9.615256105939327946e-02
3.829144061530014853e-01
8.180937917162980910e-02
-1.961837153963251756e-01
-6.891111224914366895e-01
-2.231750723864504571e-01
1.734345010338986248e-01
-1.784697600362023240e-01
-6.175917804477557699e-02
-1.217991696816747849e-01
2.855095849439177186e-04
-3.470334594553209917e-01
3.401388037932659425e-01
4.154289657525903068e-01
-5.077058598072003992e-02
-9.045048374516741208e-02
4.200661493158991400e-01
3.010321981245595024e-02
1.661976669976685250e-01
-1.099605099977898487e-01
6.176640148475034259e-02
-5.703262181213544779e-02
-5.136328070717010030e-01
-5.614018655496912924e-01
-1.985218395227506538e-01
5.464079568805711024e-03
6.527025224066076992e-02
-3.017715837832956605e-01
1.177111565084274086e-01
-3.300256425136420535e-02
3.665891571522415515e-01
2.091616355424465723e-01
9.565020247558451982e-02
4.327111977515445129e-02
1.696091208658346006e-01
1.693246527604423957e-01
-1.792662124698146675e-02
-1.237422622655897364e-01
-2.915739386529480059e-01
5.328902880382263563e-02
-1.751708617035254989e-01
-1.575929511917436021e-01
-7.452409607361476507e-02
8.669385959878357639e-02
4.798469439037673229e-02
2.767227444879800657e-01
-1.471647210089166435e-01
-1.305862031834720827e-01
-2.815841349792730930e-01
-4.724209953111556115e-01
1.054103367280032066e-01
1.585766323792789367e-01
-1.361235502705733236e-01
-2.641539021968555279e-01
-1.969019672355618589e-01
5.482298188007152240e-02
-3.644774405384137439e-01
-1.639117343703848928e-01
9.220690776701108426e-02
2.888103962569795735e-01
4.680526169214956761e-02
-1.374036873542575365e-01
2.721460292574812145e-01
5.961867485280418766e-01
8.132055327314406667e-02
-8.095711017216859762e-02
-2.129330266556065179e-02
1.255481512774704600e-01
2.343334931313361680e-01
2.710948960881094938e-01
-3.247904152724678806e-01
2.849738612545226202e-01
-1.813397824830999816e-01
-3.639564840669920476e-02
-3.421642110263368175e-01
-2.686754436084469733e-01
-7.013807256933768386e-02
2.781156046421950356e-01
1.512561983152735379e-01
-1.803489717942522719e-01
-6.305395865776737274e-01
-3.758161223303266851e-01
-4.939114460374623150e-02
-1.421128487377108229e-01
-4.149488169307419816e-01
-1.466245711500652887e-02
6.902595327353050481e-02
3.678922017018898538e-02
2.183679869523595662e-01
-2.982340079573657654e-01
5.239379250594178306e-01
-1.033729428452676985e-01
1.839613557116581699e-02
1.186470061474489551e-01
-6.551402940645127335e-03
1.925077463112246090e-01
1.071191960929718662e-01
-2.525555142187007607e-01
-2.617211945649124405e-01
-9.240964227677918308e-02
6.896437979673147867e-02
1.547003013203054334e-01
-1.213600946208739789e-01
-7.835726220845602719e-02
-1.952337399768373505e-01
-1.401847376168733894e-01
4.682166165055364759e-01
2.277747966063215779e-01
-2.409142832144622881e-02
-5.589772814641166820e-03
-4.641503114258636875e-02
-3.721096346814435352e-01
2.538436419747889805e-01
-7.298749894592804210e-02
2.270137143261007073e-01
-1.563978822027798088e-01
2.553713299000622272e-01
-1.725729178923614271e-01
9.426346226057516486e-02
-3.387042687401260466e-01
3.342472718071977655e-01
1.018103798291702250e-01
1.082280839362834562e-01
3.511753237673425482e-03
-1.308030751235362554e-01
-2.920479792653601359e-01
-4.955156615498397532e-02
3.686985445439817655e-01
-2.572722701020180996e-02
5.089042524785528099e-02
3.043275472428388362e-01
-2.117134236373109102e-01
1.902722773978019200e-01
-3.726629962797867179e-02
2.149353939241812061e-01
3.901225854729525322e-01
2.538543458149001286e-01
1.629457757806978824e-01
1.224566015317869183e-01
7.064559119198331183e-02
-1.241596596956699439e-01
-2.631041159256354289e-01
-4.082268009366190123e-03
6.269842774414234599e-02
2.239410094656608952e-01
-1.095521637807883170e-01
6.807398810557110935e-02
1.099204176948271744e-01
-3.083984505175261792e-01
2.804879913865159780e-01
-2.039194594180573916e-01
9.156858171908169308e-02
-2.485727997628690289e-01
-1.018655447698287725e-01
-1.840544641801565851e-01
1.071099354462572012e-01
-1.403104248561503342e-01
1.390846164332651680e-01
5.314070126188196186e-01
3.578995521812681213e-01
3.075659881913404559e-01
9.364102135189709963e-02
-2.975372785772904469e-02
-1.735210554187658905e-01
1.171400000468553471e-01
-8.826598643039412773e-02
-2.565706879777030630e-02
2.634629555909356879e-01
-4.693073529141732203e-02
4.021394390040373690e-01
-4.564070422103657515e-02
-6.696379078592738787e-02
2.253207613216037519e-01
5.540479110592482215e-01
-7.116181993903662739e-02
1.531603859612470087e-01
3.239384534988642428e-01
5.006217723770218786e-01
4.720362713623947326e-01
1.189694450084406718e-01
-3.550765002737315545e-01
3.227178194055274618e-01
1.878932792291714282e-01
1.025341022289109894e-01
4.113896060660486853e-01
1.336776064237897299e-01
1.129741346917889633e-01
2.100149832167353958e-01
2.360527879555932018e-01
-6.035012658736642610e-01
-3.326531155177726573e-01
-1.252850712970508262e-01
2.235438550299652105e-01
4.527858056575763124e-01
8.696834223473950964e-02
1.756092132386218030e-01
6.115371745832844930e-01
-2.071131492992912271e-01
-9.490447677310444308e-02
1.051080167852632558e-02
8.063272197456434753e-01
-1.960889765856954070e-01
-1.494439199928655204e-01
-8.982402968762352724e-02
1.575194759372142428e-01
-1.815264177698078241e-01
2.209436691884817949e-01
1.360961943021010180e-02
8.341641855767574498e-02
6.188685351217217967e-01
-1.247162060814296751e-02
-1.096321497539015644e-01
-1.172287021122813133e-01
6.159865062928235879e-01
-1.771276346607865704e-01
2.232155633932577654e-01
-2.540458011665587823e-01
-9.295143410424151764e-02
3.285254091530432144e-03
1.729523545446657040e-01
2.769343195984336758e-01
-8.498944588652526666e-02
-6.287771146999646676e-01
4.435713995453147845e-02
-1.321954057492047696e-01
-6.638023229958989191e-02
-3.581350589053426681e-02
3.664238613840891112e-01
-1.439235308319618267e-01
8.163386999774887576e-01
-5.342881122714787656e-02
-1.841046964613333170e-01
2.264924417398770373e-01
1.483469336083387824e-01
-3.941918424588702896e-01
-6.519953043248434277e-01
1.421803884497430948e-01
2.316601256957802057e-01
4.605246475697356012e-01
-3.609614369155147995e-01
-2.728339969079936478e-01
9.212564186969715574e-02
2.826463829178532117e-01
3.957718246340648227e-02
2.273216423770305084e-02
3.514087168155827778e-01
2.020312805430893033e-01
2.110519020858515060e-01
-2.615010995942375627e-01
1.382151839136757931e-01
2.166493270607082744e-01
-3.020865833930368449e-01
-2.572032963358016899e-01
-2.971903859556501160e-01
-1.795780702047634625e-01
2.229990500561093991e-01
-2.630755086256977293e-01
-2.369636582666607982e-02
3.078027893339465026e-01
2.541340862196157513e-01
-1.897386057674909643e-01
-1.620973355297745389e-01
2.731486894933038978e-01
-2.066043937626746430e-02
3.346745248591433408e-01
-1.205681769870570325e-01
3.645741264998325626e-02
5.451575684992888693e-01
-8.256393852826443558e-02
-1.049292154078672185e-01
-1.647247396763043825e-01
-4.782420041732556547e-03
4.820844999661644953e-02
4.871346393208027259e-03
-6.901624861585230197e-02
2.387551951845417186e-01
-4.906124262501257993e-01
-5.468697327657980750e-02
-1.156175493784167424e-01
1.476256036112552905e-01
3.462637419752076506e-01
4.050864822247077779e-01
-2.939540132505881753e-01
-2.910477939262607894e-01
-3.168122650650820882e-01
3.408240069561794261e-01
-1.883041728341197305e-02
-2.359255506338404917e-01
5.775297997614923379e-02
1.272067698305157368e-01
-1.313403698549872323e-01
-2.488731698154423577e-01
1.380435235348488332e-01
5.812738731461639802e-02
-3.474980932182326204e-02
-8.173107513784708122e-02
-3.223056244472880926e-03
1.367159616237065833e-01
-1.098523060438319349e-01
2.315903002332354577e-01
1.452291632284708200e-01
2.170382722117044083e-01
-2.229821214884871589e-02
3.313996027299890290e-01
-3.878199821371723921e-01
3.736683114327182809e-01
3.421427868972162223e-01
1.088480823511680934e-01
4.396339678788418470e-01
-9.220867938950896847e-02
-4.247615546632774880e-02
-7.543889583363385665e-01
-5.466779190818464064e-03
3.228788105228139749e-01
3.744531964746463104e-01
3.271969530260501191e-01
-2.822688225129560066e-02
-2.602610989139562125e-01
-2.150861741448258369e-01
2.158154423946086753e-01
3.609951595596167656e-02
4.973079975227343574e-01
-4.123571003087243003e-01
-2.606444287172605123e-01
-3.139343994292004281e-02
-2.279371910239092747e-01
-2.621045009190799829e-02
4.807964424514099000e-01
1.553619325522452022e-01
1.103711476950780535e-02
2.292920452252759089e-01
-4.904146146157764563e-01
-2.371021697615177115e-01
1.028307630723832161e-01
1.629482614016710407e-01
1.410061453541278931e-01
-1.613123732657675280e-01
-2.294764023386501317e-01
-7.324123208431541909e-02
-1.898590755987508150e-01
3.330400178799234334e-01
1.244707999776109297e-01
4.956328459556263999e-01
1.504529063402016420e-01
1.174823916820232489e-01
-7.377841117509399346e-03
2.118427658297680205e-01
-8.915473968930212600e-02
3.097404011483975358e-02
-2.441565793821208197e-01
-3.061796339088909691e-01
2.672422015126344266e-02
8.704796346814402952e-02
-1.395522913112174912e-01
1.091818515595413194e-03
-2.953950261683643275e-01
1.213279548064344626e-01
1.448659115967615429e-01
-1.719426529431037354e-01
-1.042039460837143085e-02
2.002801919804531594e-01
2.166136806163773965e-01
1.818784035986719116e-01
-2.223659839376292482e-02
1.976985092353611972e-01
-2.668296816392720650e-01
1.774988481797076523e-01
1.540148069037682865e-01
4.057701314601914189e-01
2.116122511394591399e-02
1.942670207160602514e-01
-2.291764786559324571e-03
-6.693499681298487047e-02
8.291651675066580296e-02
1.540313382913422457e-01
4.191103979867312757e-01
-1.197904557152653787e-01
2.163536517401959680e-01
-1.568350632586941185e-01
-6.652263519312575646e-01
-4.425793208731299000e-01
7.387474785975442493e-02
-1.089666501500764079e-01
-2.942459387944248994e-01
1.671827533465445881e-01
3.340393002144655954e-01
2.470106061133455766e-01
1.336062225874820042e-01
1.270526732025590300e-01
2.604794834776206214e-01
5.471371702411192972e-01
-1.919047507890901394e-01
-6.262318076111920984e-02
9.109631743010189187e-01
-4.419646875691015664e-01
3.387636034141598973e-01
-1.691194713733355226e-01
-2.717265589626032263e-01
-2.338535078551044755e-01
-2.494148250531434408e-01
5.997666740051945666e-01
2.625761395672667753e-01
2.316162120771372845e-01
3.506932378397072947e-01
-1.325627614518790631e-01
2.859317920380854416e-01
1.623961094895525203e-01
1.563041804169150728e-01
-2.358666549997509021e-01
-3.449702327686675341e-02
1.880987862793400966e-01
3.092163208366333765e-02
-2.216074991518587334e-01
-1.436359685526221175e-01
-9.671229297411874926e-02
3.838855852938524715e-01
3.197589712319068300e-01
8.205675022196175228e-02
9.784796540228377082e-02
5.527736128798745041e-02
6.145399698516984532e-01
-1.762704147263216281e-01
-1.516286082104530419e-01
4.178958170638420039e-02
3.208124249316614551e-01
-3.817566575250343902e-02
-1.062329163733145426e-01
-1.515122904927686948e-02
1.106047512705654046e-01
-1.339953129463923240e-02
-2.858546734204127637e-01
-2.028641362451321095e-01
2.521958897870150151e-01
-1.847607332666899582e-01
3.886603703602480864e-01
-8.445515949056896232e-04
-3.039952136282306761e-01
2.791737580328015333e-01
-4.896273306367287040e-03
-6.137542122176713466e-01
1.863203809432438518e-01
9.300600053962332359e-02
4.270595768745991117e-02
3.542181929914687277e-01
-8.111616059954029900e-02
-2.481167525652203110e-01
-4.342988815886587167e-02
7.073346076516000558e-01
-2.575582269382163947e-01
5.459698132424058992e-01
3.593537121312832539e-01
-8.994401398165781381e-02
-3.680794358084084617e-01
-1.856589997406148107e-01
-1.155220324671569210e-01
3.141814595559703771e-01
3.032608951367536942e-01
-2.783138804235876229e-01
-1.667508289743907246e-01
-3.053392555877943448e-01
-9.292646839460921848e-02
-1.795940020932113856e-01
-7.871007164375743229e-03
-3.155457199301867077e-01
2.459091265444958777e-02
-6.612667335402576396e-02
4.351265475531327920e-01
9.215716551418748348e-02
3.175709497054735042e-01
9.134571014333028871e-02
9.312846144694371386e-02
-9.829271528410796210e-02
3.535360362303892334e-02
-1.391909821826425586e-01
3.056894527013315557e-02
3.462174780598334389e-01
1.906472608436802219e-01
3.216403556918799311e-01
-2.156540798558581329e-01
-9.935708483942017055e-02
-4.733021339094974078e-02
6.341865487486129938e-02
-2.557000259992843749e-01
-1.176974378397636772e-01
2.166723303784978336e-02
-3.848978695997165578e-01
-2.123384032482257891e-02
8.674338041358645168e-02
-3.955940519160554281e-02
1.716889172909246974e-01
4.021029765293147873e-02
-4.873728238169733329e-02
-1.861428173929874363e-01
1.209994052207499782e-01
1.486503684501108702e-01
4.045359214962991889e-01
-3.665694043578944239e-01
1.050175841906169499e-02
1.371640369523647596e-01
8.202450628367663477e-01
1.202042094948988921e-01
2.914798029870450946e-02
1.751750272933321195e-01
-5.009140690065612411e-02
7.076645627619720935e-02
4.263591881778333592e-01
1.774048860344729084e-01
1.098629985690620925e-01
-7.553902380570279296e-02
-7.604185072872213236e-02
-6.589117647575408465e-02
-4.084155113241796364e-01
-1.562243526960820084e-01
-2.532562436354307556e-01
6.196766349333703294e-01
1.707263384630571673e-02
-4.179741410780056232e-01
-2.344305396196594837e-01
-2.931237040190435295e-01
4.500344759861398258e-01
2.378972556028029761e-01
-5.256682609519364169e-01
7.131938974909229900e-02
5.774640770042826360e-02
-2.908455951455075628e-01
-2.864782270728323810e-01
-7.916735270201633035e-02
1.773625145062789621e-01
2.491612045198283720e-01
-1.516883507734804737e-01
-2.690890840800049255e-01
5.475278927648153937e-01
-2.654231467011061163e-01
-1.346349693175602491e-01
-4.841645272351634277e-02
-3.412513091100599638e-02
2.806214474818705673e-01
-2.957879646886367453e-03
3.526735148014145671e-01
-4.928082622251567790e-01
-3.019470236568407295e-01
3.385192244826460417e-01
-2.599165134695231028e-01
-7.179694692550987467e-01
3.455276130763926257e-01
-4.130256100735018032e-01
1.042658778514463785e-01
3.919321496443610164e-01
-4.882008445525830020e-01
1.585616050463038718e-01
-1.778510571035653298e-01
-3.639903397580085409e-01
-2.520915114852424477e-01
2.477175906955809137e-01
-1.056293724030649278e-01
2.013723060274514448e-02
3.360688963683917951e-02
6.643300626272662102e-02
2.104229591762337426e-01
3.521597189621804985e-02
2.756335826061583234e-03
-1.794655287097405294e-01
9.573814131712644893e-02
-4.565217388807640830e-01
-6.038675676148161919e-01
-4.638636946918295312e-01
5.143716756992482431e-01
-1.890199101310400531e-01
2.518377862371739551e-01
-1.452944271935606713e-01
1.558890413780407713e-01
3.731599303850086091e-01
-1.214851859027224618e-01
5.594177149409281791e-01
3.338173590013706060e-01
3.043477479642916345e-02
1.760365517556845491e-02
3.092606479660211377e-02
1.533969946689332509e-01
-2.342721780287662092e-01
1.628956959315170927e-01
1.246922962199188689e-02
-3.081716124516706845e-01
-1.356933738288631230e-01
4.534075176323514311e-01
3.368436424075410551e-01
1.507535190449708629e-01
-2.156028867341763244e-01
-2.977139448491201157e-01
1.259339167057444697e-01
7.154363741072899963e-01
4.480868427071838661e-02
-5.191072925354182910e-02
2.503209015697856477e-01
-1.572968540671443871e-01
-2.149164158320426843e-01
2.692351265776674052e-01
1.862946372307078546e-01
-5.535122596351559343e-01
-4.297361541997781753e-01
3.915282222915535820e-02
-1.786445459655080781e-01
1.010931383180655729e-01
7.648694715617335160e-02
-2.358515613339375872e-01
-1.968930271658571041e-01
-7.791215172734496097e-02
-3.063933934593444097e-01
7.095192908042793900e-02
1.629327660069179382e-02
8.515806435012635012e-02
-1.344702128391981055e-01
9.825298651450514731e-02
-1.000634964242772096e+00
1.826589192363521075e-01
-4.727682959121565220e-02
-3.083133662949198439e-01
-1.032563109241741994e-01
-4.396624520682959614e-01
2.353826833437388799e-01
3.428459001255564909e-01
-1.680831275475340447e-01
-8.847649858511288934e-03
1.899544207733127876e-01
4.541134662582991810e-01
-4.182458081753661627e-01
7.893484142653856006e-02
-9.485670280323876824e-02
-4.406304922288862280e-01
6.882437740959700123e-02
-1.943097166252539393e-02
-1.795588479025132800e-01
-5.368522024737645663e-03
-8.254430079098058759e-02
1.189889722076468287e-01
-1.825981136201747582e-02
-1.372697897458022565e-01
-8.995466207624319699e-02
-2.884925159241979453e-01
-3.779277114206241461e-01
5.672284041962605272e-01
1.353382557340302994e-01
4.051731002756855937e-01
5.629455951265183167e-02
8.154751523283922110e-02
-5.636195374272315872e-01
-2.739374820735913096e-01
1.188661599104143124e-01
1.252112719460613671e-02
3.182036869408018109e-01
-2.132599661389879553e-01
1.854213186657144852e-01
-2.091093849992038678e-01
1.339788417639908580e-01
3.106054191746979720e-01
-4.469025664050471636e-02
3.928541973077032123e-01
2.716521104113277518e-01
1.895813385571424314e-01
-2.137265876929526354e-01
1.416046920099361117e-01
-1.844556038498733619e-01
-1.017695526230200931e-01
1.243694396960199622e-01
5.771729227958415365e-01
3.857384204601347344e-01
4.089752389756282254e-03
5.323861227363250181e-01
-1.068067159857573195e-01
2.902848947455310413e-01
-5.498225358252504386e-02
7.879037337413408171e-03
-7.062376718546987953e-02
-1.866559567175279100e-01
-1.969859180128432641e-01
7.979975568394898078e-01
-6.402633592467621426e-02
-5.147123760624228855e-02
1.283067977056056019e-01
2.526851524152696205e-01
4.052268093114288344e-02
-9.727394272660394581e-02
2.355490745605839653e-01
-3.174245320922123859e-01
1.204552724095386967e-01
-9.655146436849240676e-02
1.847672373271537771e-01
2.250210389912930820e-01
4.534169122247314748e-02
1.114369552150240028e-01
-9.545471593329686588e-02
3.639549382363960195e-02
4.505702814636537018e-02
9.929217216879099306e-02
8.871691344012493097e-02
5.194940232167380260e-03
4.009785483550067919e-01
-1.481454409409396211e-01
6.571450999455619169e-02
-9.101809393598348993e-03
-1.364705826009006140e-01
4.041288363372622094e-01
4.518731660669056405e-01
-1.592519263653918715e-02
4.682683356971894528e-01
5.573935163756182920e-02
-2.014106730279423274e-01
2.189342947870521472e-01
2.356195983625560264e-01
-1.077455201910773736e-01
1.476195278781207779e-02
-5.393245993636202051e-01
-4.300645428648363633e-01
5.090830445373124569e-01
1.989682106544530538e-01
3.369187841807880224e-01
2.348682061744541971e-01
4.769877404389076259e-01
7.705404470842570908e-02
-3.845973558906082279e-02
-3.136434413158846191e-01
1.046899125556066124e-01
-1.877122072301578848e-01
2.312797474382922713e-01
-1.393070368108825785e-01
2.279546634661293036e-01
-5.119779101663856080e-01
-5.386594267198467623e-02
1.583333798938006409e-01
2.138269463390552738e-01
-1.082961615960506968e-01
-2.372904524432336015e-01
4.800107538114887357e-02
1.344296346721849181e-02
-2.129060294824108301e-01
-6.350124229251873087e-02
1.102274431048883563e-01
-4.098334939909531460e-01
-2.440013876117801128e-01
-1.674032193458638018e-01
1.450929427840318697e-01
3.872747441545058011e-01
1.142477786581087423e-01
2.914196509183586414e-02
-4.420237355668888979e-01
-2.514874526006745104e-01
-2.098526857859584760e-01
1.900565026223317855e-01
9.376696283446206426e-02
-7.042450404174843692e-01
-1.208526947967205820e-02
-3.580722921514348234e-02
-2.922270260992027580e-01
5.531162413019060503e-02
8.095429055233119287e-02
-2.758316015784703090e-01
4.193450171004382138e-02
1.292974811143660363e-01
-3.688917036631840785e-01
-1.977054521901190631e-01
-2.852269496366549584e-01
1.865665068128281590e-01
3.558547185250222067e-01
1.920376694897556191e-01
7.272425564643653084e-02
2.296346509234797328e-01
-9.921667745393908389e-02
-4.158465470947986797e-01
2.074964794462264839e-01
-6.089926679123957021e-01
2.827849756444245077e-02
5.325705197077852393e-01
4.021345156336352811e-01
-3.040880040961210784e-01
-5.713210289373603645e-01
-1.752146915789017378e-01
-3.311548401634886174e-01
2.487782771946458471e-01
-2.787259498118821455e-01
-3.259625880420619071e-01
-2.248766919698579059e-01
4.749020078232246006e-02
-7.208987237875787990e-01
-9.997546227562557897e-02
3.204356483805892442e-02
-3.687317538185269084e-01
5.274909641999528942e-01
-3.083563631090195933e-01
-4.518500083322283256e-01
7.206767342162094525e-02
-3.754039814916675932e-01
-7.404522448876352803e-01
2.337585271396029896e-01
2.399390565684454413e-01
-1.178037411588858385e-01
1.321323979995036313e-01
-1.483424754659315448e-01
-7.041380420091448711e-01
2.423488901395788320e-01
-2.335880835229167396e-01
-9.054716085030582728e-02
-4.947826350650460503e-01
-9.038495226340471922e-02
-1.904220674375419198e-01
1.261881984190122569e-02
-4.893426532844662863e-02
-4.154304441131135839e-01
2.567494115583174863e-01
4.021434868260784223e-01
-1.539344280159845035e-01
-4.044531597315697558e-01
-2.382080337560679717e-01
1.024286920998866840e-01
-6.094873542451020865e-02
1.054374772908203833e-01
-4.935236803751816836e-01
5.409543002309308291e-01
3.724017529876328531e-02
-1.074442436213398411e+00
-3.243164019289550976e-02
1.075383061088838466e-01
2.905997235750627516e-01
5.476465683067399670e-02
2.636167679779014561e-01
2.425170869379264516e-02
-3.779537140852699123e-02
6.219389687810324974e-01
-5.851711331332309918e-01
-1.387648665279190077e-02
-1.637220426976071785e-01
-2.760869457531795954e-02
1.633748951475416100e-01
-9.794757508563016468e-02
4.075250673954541186e-02
-1.503170500753959419e-03
1.564315714581378802e-01
-1.477417004386860910e-01
1.298895981647522554e-02
-3.317677890161479376e-02
1.306733592087003515e-01
-1.060488702764563612e-01
-3.117562636694432357e-02
-1.396748866214936324e-01
-9.391141789990703481e-02
-1.469644904351630754e-01
-3.750216818897832427e-01
2.542640377547410457e-01
6.718919963117149508e-02
-6.629467998122572092e-02
1.686774440511903117e-01
1.281106486309032955e-01
8.549357557613344871e-02
-5.925631800393585946e-01
4.951863744508561704e-01
-2.126700179651541678e-01
3.069196937641457956e-01
1.312271257346223630e-01
-2.256729982723823247e-01
8.630284019323442024e-02
1.108315844523629634e-01
1.612815014244494138e-01
2.052906191381669576e-01
-8.108537052479912466e-02
3.334169459904897659e-01
1.933407274158587263e-01
1.919930402242692180e-01
4.580674112169571405e-02
-4.974942883534371751e-01
-1.824450945833221427e-01
2.582985219050402126e-01
2.862264908390761420e-01
4.487101863710245553e-01
2.156847789408471161e-01
-1.264852240065952038e-01
1.128627884678168325e-01
-5.185229914928215361e-02
2.953588354841451546e-01
-2.452728504435302062e-02
2.332310885667229494e-01
-2.181287628877146278e-01
3.045205289455343300e-01
2.707921873456360928e-01
3.860994681581878529e-01
5.567402184837279278e-02
-1.671443099411011879e-01
-2.674362688698281865e-01
-2.540321578220100518e-01
1.873618031443540985e-02
-1.421420675013737034e-01
3.811694677017859467e-01
-2.041518516056327892e-01
5.034109283291067494e-02
-2.983250061087037719e-01
3.251417287745429069e-02
2.575234164606577947e-01
-1.270336327961218148e-01
2.213242338431758716e-01
-1.744269369615883969e-01
2.553354923130920495e-01
3.272076709825298968e-01
-7.958654550111124437e-02
-2.740768128101613854e-01
1.128718691540341879e-01
3.482716320307771007e-01
4.102962166472952088e-01
-7.284577806463148064e-02
4.942947329324839240e-02
3.746811552928080435e-01
-5.717128806185868273e-01
-2.440369095290945839e-02
1.120575869897644239e-01
-3.403857346039492193e-01
7.095411130463353915e-03
8.104613997478084253e-02
2.517939918400468602e-01
-1.165296464773323132e-01
8.653766580923036855e-01
-4.365708719892175127e-01
-4.687828439719346485e-01
4.303254547478901904e-01
3.516424075274259820e-01
6.951019611905482343e-01
2.145705329822322760e-01
6.138114092523321019e-02
2.460792965196552662e-01
-2.976260220943475199e-01
3.274382814705383837e-01
1.113868498883142794e-01
3.519577850002977848e-01
2.382139581058420955e-02
2.266884531080666232e-01
-1.435664349534271911e-01
1.653762522985408323e-01
1.029002392553693412e-02
2.272907189496471136e-01
5.105968555218987071e-02
6.918958343109012921e-01
3.551409626540052988e-01
-1.787700634295973923e-01
-3.163600505835386656e-01
-4.484138891479985678e-01
-5.550672893227015514e-02
5.922821979441331153e-02
2.696078513769680635e-02
2.181369040421620442e-01
3.208247775461771645e-01
-1.692207184325514313e-01
6.519728242923276962e-02
8.505124904797075128e-03
-1.924014699541587714e-01
-1.947275535864028129e-01
2.560229039266184725e-01
-1.175911984675295507e-01
8.115524441117802357e-02
-1.525741475198628405e-01
-5.577393734112159884e-02
2.039746831364297464e-02
-4.414315972740786020e-01
-6.756796486503444110e-02
-2.266511347553482603e-01
-7.182290854089232179e-02
-9.598387606804649475e-02
-5.649828223297560514e-01
9.580408136403961716e-02
-3.260159532128352744e-01
7.225538077888233879e-01
-3.999117820409799351e-01
3.671376410735062434e-02
1.887140883926525792e-01
-3.753843405222428431e-01
1.157175248231287479e-01
7.597852972618640566e-02
1.004983991548460964e-01
8.374192122397186577e-02
-3.276913953762097820e-02
1.261230658302268104e-01
-3.673507135559548886e-01
-1.491046197860766698e-01
-2.530395578606506324e-01
-2.025644464310700776e-01
2.885424665941616756e-02
-3.625544000027218494e-02
6.448738517100117973e-02
-1.146205203869207351e-01
-7.881958452945307669e-02
-2.866744781902325623e-01
-6.944025288672914242e-02
-3.099528660661771129e-01
-7.885075337138587603e-02
-3.351720963873251469e-01
5.392090205016942805e-01
3.006342160317111989e-01
9.318363894899717170e-02
1.506722588942484009e-01
-1.171259010823115648e-01
5.329809443392399815e-02
-5.886024996907036205e-02
2.816575249090031430e-01
2.025266369603692662e-01
4.353269004581377527e-02
-4.206831097837541167e-01
9.912136632098891842e-02
2.969492679852855366e-01
2.756659592539359091e-02
3.689630491383579791e-01
-1.259921761311025012e-01
1.521375132113828577e-01
-2.655764510035520110e-02
1.386966768817773088e-01
-3.332355550317461779e-01
-4.742497493849361784e-02
-1.798256669537081631e-01
6.606087479893599235e-02
-4.342495725622353975e-01
-5.909260824786070065e-01
1.113689367769199329e-01
-3.647681582392660604e-01
4.229369211941040874e-01
-1.172453564985496098e-02
-2.689060060744224295e-02
-1.403147498761424077e-02
4.193927021166655722e-01
-3.957720565788973577e-01
-2.983830512401990376e-01
-2.093451550600504418e-02
-2.870083393841061925e-01
-3.149021058737853651e-01
3.953954018431930090e-02
-3.778397267029347528e-01
-4.645759300573371053e-02
3.575490878139974127e-01
2.900912220821964538e-01
1.756259953871996959e-01
-1.612288718921364439e-01
6.047208866605511268e-01
6.876896503117639892e-01
3.233346505018762640e-01
2.498660578620123113e-02
-4.044947531319019185e-01
-6.779315912048787529e-02
1.063906456897575625e-01
1.297998729646475946e-01
4.804649904713239605e-01
9.731361157935163042e-02
-3.419460990559939489e-02
9.644458161878897984e-02
4.785049281666542420e-01
-1.173426994622732839e-01
-2.246087542114906521e-02
2.442954013468326066e-02
3.558640327648150969e-01
1.877023600880607102e-01
2.248613573210996031e-02
2.741355383571598137e-01
-3.859595211165692263e-02
5.223122375688539210e-01
7.434571154013431826e-01
3.478195442903444373e-02
1.850337391761126479e-02
2.757512718326751155e-01
4.330291502478172960e-02
2.612639911511873692e-01
3.324000337204838229e-01
6.760445070211216212e-01
-1.328180767228241133e-01
-3.466503118030780928e-01
-2.028150919633602556e-01
-7.566783721256947759e-02
4.717234400473975242e-01
-1.379282399111469160e-01
-6.645313953475112667e-01
-8.990148180047901061e-01
3.965571337754725811e-01
-1.997941733118949875e-02
4.875454113459947725e-01
-1.458888222772184717e-01
-3.889111453045405176e-01
1.269659322357578890e-01
-6.629421144133107457e-01
-4.082972898420495489e-01
9.943945221434377646e-02
1.384727910302122333e-01
6.196160005322741415e-02
4.167188234488061194e-01
-4.427137328705530450e-01
-9.311127240232039415e-02
-3.808222005197154370e-01
3.303803412062593092e-01
8.723947335495192690e-02
2.401719613422728661e-01
3.493532667769306821e-01
2.661795139785493314e-01
-4.841502068254513284e-03
3.028255748909806089e-01
-7.143729676008414575e-02
1.769647807123498617e-01
-3.961268450853591000e-02
3.569390978119671431e-02
4.079034012738199655e-01
1.078554039160228156e-01
-6.584650856135325359e-02
-1.907621398104612787e-01
-6.829045607258731332e-01
-3.842188927176174440e-01
-2.839351542588122168e-01
1.291534425164892474e-01
3.937400488219003902e-01
3.750449960022269602e-01
-4.679439436900630772e-02
1.988031422822843231e-01
-6.683612360758154347e-01
-4.683655407450285080e-01
3.223418656762275791e-01
2.685879171871792259e-01
3.557955678163817748e-01
-4.148050188016014217e-01
9.120237656255626713e-02
1.390704962508207687e-01
6.633997604810185078e-02
2.565605076428701878e-02
4.071625049300723886e-01
6.808861534834438622e-02
-1.975662542955989032e-01
1.024675995848256943e-01
5.842316958722982845e-01
2.548207101555177156e-01
-7.142926644168762218e-02
-6.521150104030107308e-02
-1.286687400413803750e-02
-8.453146810610251416e-02
8.587124073618461473e-02
6.435646848691441158e-02
3.448382157796144876e-01
7.305488266927572250e-01
1.787063147413895936e-01
-1.125144163737107489e-01
4.150429673838593181e-01
1.530695452764120890e-01
3.288456525930003593e-01
8.941287973308141568e-02
2.806464031546937465e-01
1.427520451361560250e-01
3.348386911014005762e-01
2.244327644178872958e-03
3.007257671429398593e-01
3.267444420565321361e-01
2.465524471289726738e-01
5.895043210207255857e-01
3.968552372185794042e-01
1.000362297444856857e-01
4.082386754720481736e-01
1.312635753367752955e-01
-1.861167800697650088e-01
4.880721617396597822e-01
2.653067689714181387e-01
3.628578228021603347e-01
-2.637460356322724950e-02
-1.463405225288014200e-01
-1.587380388015179888e-01
9.439453786193210960e-02
1.729978096138014287e-01
3.329786878450398668e-01
-1.295207276674058827e-01
3.399935106787141392e-01
7.546094891914997826e-02
-1.975288348637762037e-01
3.869196696116140588e-01
1.443830682779525809e-01
1.180169235633393432e-01
-8.194982816733609524e-03
-4.745073031696996069e-02
-1.362676267993422619e-01
3.896019200307355157e-01
5.307801525929899816e-02
1.103800455644708134e-01
2.487467858786615860e-01
-3.811552766183289864e-01
3.822673532356275494e-01
6.130595921525060655e-04
6.253244429020725359e-02
-5.077381845461884646e-01
-1.447901189966087632e-01
6.313382969386009680e-02
-3.603209989144283143e-01
-1.901801234031809673e-01
-4.821980035567639544e-01
9.309969120815930754e-02
3.060797933989192754e-01
-4.521021645098896244e-03
-4.024950456680990996e-02
1.681174359529573059e-01
-5.324805075841686497e-01
-2.525433686077040996e-01
3.092488376270132733e-01
-2.407859431949746776e-01
-4.169933838370820101e-01
-1.279616339820632276e-01
-3.425545618820585725e-01
-9.794144218165516322e-03
3.243731937570938362e-01
-3.370147187501106312e-01
3.070918010468197679e-01
1.643202107507615861e-01
-3.474480532686818890e-01
1.841907124942462337e-01
2.159649455648509908e-01
2.573595571011645933e-01
2.537521756866562006e-02
2.192301297582538722e-01
1.212304834579319840e-01
-1.092376820190388287e-01
-6.446048362792915487e-01
-2.677897265040934394e-01
-6.233493208823642773e-01
1.817009793219389047e-01
7.818829566532947695e-02
-2.887359956199090361e-01
-1.789302895632788049e-01
-1.408574988814879358e-01
5.795310271259643820e-01
-1.529042536874735680e-01
-3.450182498446793811e-01
-7.469029967052003005e-02
1.922275271021210985e-01
-4.492092343921473829e-01
-2.653965548323818369e-01
-2.843771027472747903e-01
-3.579717312492185499e-01
2.804835148118114962e-01
4.650631193240780531e-02
1.735578947145284892e-02
3.570284582151420638e-01
1.787274162408848677e-01
-1.457473991546653913e-01
-1.563616535331990021e-01
-5.116341120051827451e-02
-1.038050982943092282e-01
2.043208877523018940e-01
2.167403028487205618e-01
-4.808066625080255063e-01
2.201153499327535845e-01
-1.552892122504763162e-01
4.337007909673766815e-01
-1.046928489257297756e-01
-4.646095140970497028e-01
-1.207115878784921215e-01
1.013932876109070874e-01
4.408617747953595851e-03
-4.441388449210318529e-02
3.177896386198871825e-01
1.234274055565216244e-01
-3.257877837179790070e-01
7.092070507242950184e-01
-2.947990757725971744e-01
-6.050013086011556823e-02
-1.868890592406316498e-01
2.085226689917172027e-01
-4.220061599465832480e-01
1.264522504389168633e-01
5.238402677989200118e-01
